{"learner":{"attributes":{"best_iteration":"9","best_ntree_limit":"10","scikit_learn":"{\"use_label_encoder\": null, \"n_estimators\": 10, \"objective\": \"binary:logistic\", \"max_depth\": 4, \"max_leaves\": null, \"max_bin\": null, \"grow_policy\": null, \"learning_rate\": null, \"verbosity\": null, \"booster\": null, \"tree_method\": null, \"gamma\": null, \"min_child_weight\": null, \"max_delta_step\": null, \"subsample\": null, \"sampling_method\": null, \"colsample_bytree\": null, \"colsample_bylevel\": null, \"colsample_bynode\": null, \"reg_alpha\": null, \"reg_lambda\": null, \"scale_pos_weight\": 10.0, \"base_score\": null, \"missing\": NaN, \"num_parallel_tree\": null, \"random_state\": null, \"n_jobs\": null, \"monotone_constraints\": null, \"interaction_constraints\": null, \"importance_type\": null, \"gpu_id\": null, \"validate_parameters\": null, \"predictor\": null, \"enable_categorical\": false, \"feature_types\": null, \"max_cat_to_onehot\": null, \"max_cat_threshold\": null, \"eval_metric\": null, \"early_stopping_rounds\": null, \"callbacks\": null, \"classes_\": [0, 1], \"n_classes_\": 2, \"_estimator_type\": \"classifier\"}"},"feature_names":["mean radius","mean texture","mean perimeter","mean area","mean smoothness","mean compactness","mean concavity","mean concave points","mean symmetry","mean fractal dimension","radius error","texture error","perimeter error","area error","smoothness error","compactness error","concavity error","concave points error","symmetry error","fractal dimension error","worst radius","worst texture","worst perimeter","worst area","worst smoothness","worst compactness","worst concavity","worst concave points","worst symmetry","worst fractal dimension"],"feature_types":[],"gradient_booster":{"model":{"gbtree_model_param":{"num_parallel_tree":"1","num_trees":"10","size_leaf_vector":"0"},"tree_info":[0,0,0,0,0,0,0,0,0,0],"trees":[{"base_weights":[1.7739038E0,1.9455707E0,-1.5343915E0,1.9620748E0,-1.5789474E0,1.52E0,-1.9523809E0,1.9675161E0,5.263158E-1,1.9740479E0,9.3333334E-1,-1.1111112E0,1.4285715E0],"categories":[],"categories_nodes":[],"categories_segments":[],"categories_sizes":[],"default_left":[1,1,1,1,0,0,0,1,1,0,0,0,0],"id":0,"left_children":[1,3,5,7,-1,-1,-1,9,11,-1,-1,-1,-1],"loss_changes":[5.405259E2,5.54646E1,6.3291862E1,5.9682617E0,0E0,0E0,0E0,4.1882324E0,8.604846E0,0E0,0E0,0E0,0E0],"parents":[2147483647,0,0,1,1,2,2,3,3,7,7,8,8],"right_children":[2,4,6,8,-1,-1,-1,10,12,-1,-1,-1,-1],"split_conditions":[3.0348158E-1,9.36341E-1,-8.5027266E-1,1.3512525E-1,-4.7368425E-1,4.56E-1,-5.857143E-1,6.957607E-1,6.3980114E-1,5.922144E-1,2.8E-1,-3.3333337E-1,4.2857146E-1],"split_indices":[22,27,19,23,0,0,0,27,0,0,0,0,0],"split_type":[0,0,0,0,0,0,0,0,0,0,0,0,0],"sum_hessian":[9.455E2,8.9925E2,4.625E1,8.955E2,3.75E0,5.25E0,4.1E1,8.9175E2,3.75E0,8.8525E2,6.5E0,1.25E0,2.5E0],"tree_param":{"num_deleted":"0","num_feature":"30","num_nodes":"13","size_leaf_vector":"0"}},{"base_weights":[1.3689792E0,1.4947258E0,-1.3300387E0,1.5123522E0,-1.3245057E0,1.1496369E0,-1.521038E0,1.5268939E0,9.397381E-1,1.5431205E0,1.2415565E0,1.350549E0,-1.659676E0],"categories":[],"categories_nodes":[],"categories_segments":[],"categories_sizes":[],"default_left":[1,1,1,1,0,0,0,1,1,0,0,0,0],"id":1,"left_children":[1,3,5,7,-1,-1,-1,9,11,-1,-1,-1,-1],"loss_changes":[2.9696777E2,4.3293823E1,2.0323708E1,5.4449463E0,0E0,0E0,0E0,1.807373E0,2.6869701E1,0E0,0E0,0E0,0E0],"parents":[2147483647,0,0,1,1,2,2,3,3,7,7,8,8],"right_children":[2,4,6,8,-1,-1,-1,10,12,-1,-1,-1,-1],"split_conditions":[3.898605E-1,9.36341E-1,-1.9993247E0,-1.0078339E-2,-3.973517E-1,3.4489107E-1,-4.5631143E-1,3.227091E-1,5.942201E-2,4.6293616E-1,3.7246698E-1,4.0516472E-1,-4.979028E-1],"split_indices":[22,27,8,23,0,0,0,27,1,0,0,0,0],"split_type":[0,0,0,0,0,0,0,0,0,0,0,0,0],"sum_hessian":[8.681408E2,8.2992114E2,3.821963E1,8.252253E2,4.695908E0,2.3744147E0,3.5845215E1,8.031623E2,2.2062998E1,7.5577454E2,4.738774E1,1.9466894E1,2.5961034E0],"tree_param":{"num_deleted":"0","num_feature":"30","num_nodes":"13","size_leaf_vector":"0"}},{"base_weights":[1.1789525E0,1.2951362E0,-1.014528E0,1.3073969E0,-1.074206E0,1.0717999E0,-1.3277568E0,1.3412209E0,1.0905272E0,1.3444558E0,7.2844356E-1,1.2352519E0,-5.44994E-1],"categories":[],"categories_nodes":[],"categories_segments":[],"categories_sizes":[],"default_left":[1,1,1,1,0,0,0,1,1,0,0,0,0],"id":2,"left_children":[1,3,5,7,-1,-1,-1,9,11,-1,-1,-1,-1],"loss_changes":[1.8733032E2,2.1554443E1,2.5784073E1,3.602539E0,0E0,0E0,0E0,1.9628906E-1,2.399189E1,0E0,0E0,0E0,0E0],"parents":[2147483647,0,0,1,1,2,2,3,3,7,7,8,8],"right_children":[2,4,6,8,-1,-1,-1,10,12,-1,-1,-1,-1],"split_conditions":[3.0348158E-1,9.36341E-1,-1.4294268E0,-1.6713467E-1,-3.222618E-1,3.2153997E-1,-3.9832705E-1,1.9004902E-1,3.0603617E-1,4.0333676E-1,2.1853308E-1,3.7057558E-1,-1.6349821E-1],"split_indices":[22,27,24,22,0,0,0,13,24,0,0,0,0],"split_type":[0,0,0,0,0,0,0,0,0,0,0,0,0],"sum_hessian":[7.2891394E2,6.926361E2,3.6277832E1,6.8951624E2,3.1198635E0,4.4194365E0,3.1858397E1,5.920006E2,9.751561E1,5.8770404E2,4.296589E0,8.9812935E1,7.7026744E0],"tree_param":{"num_deleted":"0","num_feature":"30","num_nodes":"13","size_leaf_vector":"0"}},{"base_weights":[1.066571E0,1.172461E0,-9.046722E-1,1.184369E0,-9.4889295E-1,9.5979506E-1,-1.2051644E0,1.1994728E0,5.7066274E-1,1.2062408E0,4.4619682E-1,1.1605382E0,-1.5167426E0],"categories":[],"categories_nodes":[],"categories_segments":[],"categories_sizes":[],"default_left":[1,1,1,1,0,0,0,1,1,0,0,0,0],"id":3,"left_children":[1,3,5,7,-1,-1,-1,9,11,-1,-1,-1,-1],"loss_changes":[1.2401245E2,1.5255798E1,1.8296516E1,4.4763184E0,0E0,0E0,0E0,2.227417E0,2.0575565E1,0E0,0E0,0E0,0E0],"parents":[2147483647,0,0,1,1,2,2,3,3,7,7,8,8],"right_children":[2,4,6,8,-1,-1,-1,10,12,-1,-1,-1,-1],"split_conditions":[3.0348158E-1,9.36341E-1,-4.37631E-1,-1.0078339E-2,-2.846679E-1,2.8793854E-1,-3.6154935E-1,2.0112524E0,-1.418693E-1,3.6187226E-1,1.3385905E-1,3.4816146E-1,-4.5502278E-1],"split_indices":[22,27,27,23,0,0,0,24,1,0,0,0,0],"split_type":[0,0,0,0,0,0,0,0,0,0,0,0,0],"sum_hessian":[5.8803284E2,5.584401E2,2.9592709E1,5.5576215E2,2.6780171E0,3.8028772E0,2.5789831E1,5.414814E2,1.4280746E1,5.3606366E2,5.417762E0,1.1480518E1,2.8002274E0],"tree_param":{"num_deleted":"0","num_feature":"30","num_nodes":"13","size_leaf_vector":"0"}},{"base_weights":[9.90547E-1,1.0897987E0,-8.266087E-1,1.1117357E0,-2.9183054E-1,8.3908224E-1,-1.1215672E0,1.1391783E0,7.573985E-1,8.657048E-1,-1.3554702E0,1.145772E0,4.8847672E-1,1.0250528E0,-3.4753335E-1],"categories":[],"categories_nodes":[],"categories_segments":[],"categories_sizes":[],"default_left":[1,1,1,1,1,0,0,1,1,0,0,0,0,0,0],"id":4,"left_children":[1,3,5,7,9,-1,-1,11,13,-1,-1,-1,-1,-1,-1],"loss_changes":[8.472272E1,1.3694214E1,1.3046345E1,3.3616333E0,1.0637119E1,0E0,0E0,1.1618042E0,1.0473856E1,0E0,0E0,0E0,0E0,0E0,0E0],"parents":[2147483647,0,0,1,1,2,2,3,3,4,4,7,7,8,8],"right_children":[2,4,6,8,10,-1,-1,12,14,-1,-1,-1,-1,-1,-1],"split_conditions":[3.0348158E-1,6.957607E-1,-4.37631E-1,5.6231893E-3,-3.5943258E-1,2.517247E-1,-3.364702E-1,2.0112524E0,2.9031414E-1,2.5971144E-1,-4.0664107E-1,3.437316E-1,1.4654303E-1,3.0751586E-1,-1.04260005E-1],"split_indices":[22,27,27,22,21,0,0,24,21,0,0,0,0,0,0],"split_type":[0,0,0,0,0,0,0,0,0,0,0,0,0,0,0],"sum_hessian":[4.6375864E2,4.4011987E2,2.3638748E1,4.3343332E2,6.686548E0,3.2786717E0,2.0360077E1,4.002221E2,3.3211212E1,3.2910566E0,3.3954916E0,3.9545404E2,4.7680793E0,2.6793222E1,6.4179907E0],"tree_param":{"num_deleted":"0","num_feature":"30","num_nodes":"15","size_leaf_vector":"0"}},{"base_weights":[9.337526E-1,1.0521216E0,-4.5245904E-1,1.0620904E0,-7.01218E-1,8.881936E-1,-1.0339833E0,1.0900747E0,7.366621E-1,1.0073524E0,1.784242E-1,2.5439423E-1,-1.283589E0,1.0963944E0,1.6034305E-1,9.302859E-1,-2.6351905E-1,7.677797E-1,-6.11331E-1,-1.865121E0,-1.0584829E0],"categories":[],"categories_nodes":[],"categories_segments":[],"categories_sizes":[],"default_left":[1,1,1,1,0,1,1,1,1,0,0,1,1,0,0,0,0,0,0,0,0],"id":5,"left_children":[1,3,5,7,-1,9,11,13,15,-1,-1,17,19,-1,-1,-1,-1,-1,-1,-1,-1],"loss_changes":[6.00166E1,6.593384E0,2.3719807E1,2.230713E0,0E0,6.140938E-1,7.035059E0,1.6143494E0,5.950777E0,0E0,0E0,2.345022E0,3.350582E-1,0E0,0E0,0E0,0E0,0E0,0E0,0E0,0E0],"parents":[2147483647,0,0,1,1,2,2,3,3,5,5,6,6,7,7,8,8,11,11,12,12],"right_children":[2,4,6,8,-1,10,12,14,16,-1,-1,18,20,-1,-1,-1,-1,-1,-1,-1,-1],"split_conditions":[4.6964577E-1,5.938935E-1,-2.9951867E-1,1.455894E-2,-2.1036541E-1,-1.0132519E-1,-4.152239E-2,1.9004902E-1,3.9684674E-1,3.022057E-1,5.3527262E-2,-2.957487E-1,1.32213E-1,3.2891834E-1,4.810292E-2,2.790858E-1,-7.905572E-2,2.3033392E-1,-1.833993E-1,-5.5953634E-1,-3.1754488E-1],"split_indices":[27,22,23,22,0,21,5,13,1,0,0,13,22,0,0,0,0,0,0,0,0],"split_type":[0,0,0,0,0,0,0,0,0,0,0,0,0,0,0,0,0,0,0,0,0],"sum_hessian":[3.6186517E2,3.336184E2,2.8246775E1,3.3212436E2,1.4940581E0,8.386073E0,1.9860703E1,3.0366208E2,2.8462267E1,6.821574E0,1.5644987E0,3.2201629E0,1.664054E1,3.0143384E2,2.2282367E0,2.3904507E1,4.5577602E0,2.092451E0,1.1277117E0,2.6106784E0,1.4029861E1],"tree_param":{"num_deleted":"0","num_feature":"30","num_nodes":"21","size_leaf_vector":"0"}},{"base_weights":[8.8507414E-1,1.0027996E0,-4.1597906E-1,1.0272164E0,-4.3632798E-2,8.051934E-1,-9.5894855E-1,1.0479783E0,4.920523E-1,7.148652E-1,-9.9905246E-1,9.479397E-1,7.7523015E-2,2.2147398E-1,-1.1977152E0,1.0680666E0,6.0146755E-1,8.0921113E-1,-1.1718994E0,3.891561E-1,1.2732395E-2],"categories":[],"categories_nodes":[],"categories_segments":[],"categories_sizes":[],"default_left":[1,1,1,1,1,1,1,1,1,0,0,0,0,1,0,0,0,0,0,0,0],"id":6,"left_children":[1,3,5,7,9,11,13,15,17,-1,-1,-1,-1,19,-1,-1,-1,-1,-1,-1,-1],"loss_changes":[4.359607E1,6.6575623E0,1.67509E1,2.2947998E0,5.6858425E0,7.5340366E-1,5.095499E0,1.533783E0,6.928524E0,0E0,0E0,0E0,0E0,1.255071E-1,0E0,0E0,0E0,0E0,0E0,0E0,0E0],"parents":[2147483647,0,0,1,1,2,2,3,3,4,4,5,5,6,6,7,7,8,8,13,13],"right_children":[2,4,6,8,10,12,14,16,18,-1,-1,-1,-1,20,-1,-1,-1,-1,-1,-1,-1],"split_conditions":[4.6964577E-1,1.3512525E-1,-2.9951867E-1,3.227091E-1,-1.0543312E0,1.2064326E0,-4.152239E-2,-8.519236E-2,-6.507608E-2,2.1445957E-1,-2.9971576E-1,2.8438193E-1,2.3256905E-2,-2.3677817E-1,-3.5931456E-1,3.2042E-1,1.8044028E-1,2.4276336E-1,-3.5156983E-1,1.16746835E-1,3.8197187E-3],"split_indices":[27,23,23,27,29,5,5,13,1,0,0,0,0,6,0,0,0,0,0,0,0],"split_type":[0,0,0,0,0,0,0,0,0,0,0,0,0,0,0,0,0,0,0,0,0],"sum_hessian":[2.8090738E2,2.5780887E2,2.3098537E1,2.5194841E2,5.860446E0,6.960651E0,1.6137886E1,2.4161661E2,1.03318E1,3.4072464E0,2.4531994E0,5.566059E0,1.3945919E0,2.7272477E0,1.3410639E1,2.2988226E2,1.1734341E1,9.109213E0,1.2225875E0,1.0330791E0,1.6941684E0],"tree_param":{"num_deleted":"0","num_feature":"30","num_nodes":"21","size_leaf_vector":"0"}},{"base_weights":[8.433532E-1,9.5982236E-1,-3.69133E-1,1.0172548E0,4.4788918E-1,7.292237E-1,-8.7427604E-1,1.0276581E0,1.798915E-2,9.563697E-1,-1.07581355E-1,8.896669E-1,5.0187968E-2,2.511625E-1,-1.1285356E0,1.043047E0,3.9795098E-1,4.0563175E-1,-1.7068094E0,3.0562636E-2,3.854684E-1],"categories":[],"categories_nodes":[],"categories_segments":[],"categories_sizes":[],"default_left":[1,1,1,1,1,1,1,1,0,0,1,0,0,1,0,0,0,0,0,0,0],"id":7,"left_children":[1,3,5,7,9,11,13,15,-1,-1,17,-1,-1,19,-1,-1,-1,-1,-1,-1,-1],"loss_changes":[3.1212067E1,5.414093E0,1.1663413E1,1.8394012E0,6.2953835E0,6.9679785E-1,4.308769E0,1.2987366E0,0E0,0E0,1.0029946E1,0E0,0E0,8.92594E-2,0E0,0E0,0E0,0E0,0E0,0E0,0E0],"parents":[2147483647,0,0,1,1,2,2,3,3,4,4,5,5,6,6,7,7,10,10,13,13],"right_children":[2,4,6,8,10,12,14,16,-1,-1,18,-1,-1,20,-1,-1,-1,-1,-1,-1,-1],"split_conditions":[4.6964577E-1,1.455894E-2,-2.9951867E-1,1.9004902E-1,-8.194663E-1,-1.0132519E-1,-3.6589153E-2,3.1128916E-1,5.396745E-3,2.8691092E-1,-1.3966374E-3,2.669001E-1,1.5056391E-2,-5.0734687E-1,-3.385607E-1,3.129141E-1,1.19385295E-1,1.2168953E-1,-5.120428E-1,9.168791E-3,1.1564052E-1],"split_indices":[27,22,23,13,21,21,6,27,0,0,7,0,0,14,0,0,0,0,0,0,0],"split_type":[0,0,0,0,0,0,0,0,0,0,0,0,0,0,0,0,0,0,0,0,0],"sum_hessian":[2.1751277E2,1.9864015E2,1.8872616E1,1.7771562E2,2.0924534E1,5.805608E0,1.3067008E1,1.7585635E2,1.8592564E0,1.0547537E1,1.0376997E1,4.4451194E0,1.3604882E0,2.410316E0,1.06566925E1,1.7102055E2,4.835799E0,8.4209585E0,1.9560376E0,1.3766701E0,1.0336457E0],"tree_param":{"num_deleted":"0","num_feature":"30","num_nodes":"21","size_leaf_vector":"0"}},{"base_weights":[8.035494E-1,9.1811955E-1,-3.703599E-1,1.0030185E0,2.7044782E-1,4.4946346E-1,-1.0197088E0,1.0163845E0,1.5774007E-1,7.193285E-1,-2.0018013E0,8.019917E-1,-8.337786E-1,1.0231235E0,4.3947867E-1,-3.9548805E-1,5.9719163E-1,8.6483335E-1,-2.9001081E-2,8.6889184E-1,2.4824774E-1],"categories":[],"categories_nodes":[],"categories_segments":[],"categories_sizes":[],"default_left":[1,1,1,1,1,1,0,1,1,1,0,1,0,0,0,0,0,0,0,0,0],"id":8,"left_children":[1,3,5,7,9,11,-1,13,15,17,-1,19,-1,-1,-1,-1,-1,-1,-1,-1,-1],"loss_changes":[2.3150658E1,8.241165E0,8.865959E0,1.3818207E0,2.1135807E1,4.140458E0,0E0,7.206726E-2,1.0405319E0,1.8609419E0,0E0,2.6216507E-2,0E0,0E0,0E0,0E0,0E0,0E0,0E0,0E0,0E0],"parents":[2147483647,0,0,1,1,2,2,3,3,4,4,5,5,7,7,8,8,9,9,11,11],"right_children":[2,4,6,8,10,12,-1,14,16,18,-1,20,-1,-1,-1,-1,-1,-1,-1,-1,-1],"split_conditions":[-1.0078339E-2,2.7017733E-1,-2.0915723E-1,8.587319E-1,3.223806E-1,5.362083E-1,-3.0591264E-1,3.867017E-1,-5.62309E-1,-1.2214527E-1,-6.005404E-1,-9.649149E-2,-2.501336E-1,3.0693707E-1,1.3184361E-1,-1.1864642E-1,1.791575E-1,2.5945002E-1,-8.700325E-3,2.6066756E-1,7.447433E-2],"split_indices":[23,27,6,10,1,21,0,6,5,23,0,1,0,0,0,0,0,0,0,0,0],"split_type":[0,0,0,0,0,0,0,0,0,0,0,0,0,0,0,0,0,0,0,0,0],"sum_hessian":[1.686022E2,1.538088E2,1.4793398E1,1.3549855E2,1.8310251E1,6.674481E0,8.118917E0,1.3319006E2,2.3084884E0,1.5860461E1,2.4497905E0,5.530254E0,1.144227E0,1.3088765E2,2.302412E0,1.0662376E0,1.2422509E0,1.3148239E1,2.7122216E0,4.4263644E0,1.1038895E0],"tree_param":{"num_deleted":"0","num_feature":"30","num_nodes":"21","size_leaf_vector":"0"}},{"base_weights":[7.6485884E-1,9.3453455E-1,-6.5541714E-2,9.829483E-1,7.6074645E-2,5.980119E-1,-1.0847551E0,1.0009061E0,-3.152528E-1,5.6841666E-1,-1.0805364E0,9.0327376E-1,-2.3136902E-1,3.4209853E-1,-1.3521584E0,3.2139683E-1,1.0102847E0,8.0191904E-1,-5.5990227E-2,9.41948E-1,2.7977377E-1,5.778743E-1,-1.1482064E0],"categories":[],"categories_nodes":[],"categories_segments":[],"categories_sizes":[],"default_left":[1,1,1,1,1,1,1,1,0,1,0,1,1,0,0,0,0,0,0,0,0,0,0],"id":9,"left_children":[1,3,5,7,9,11,13,15,-1,17,-1,19,21,-1,-1,-1,-1,-1,-1,-1,-1,-1,-1],"loss_changes":[1.8600578E1,4.468712E0,1.6378494E1,2.726097E0,4.5547714E0,3.9387565E0,4.097457E0,3.2678986E-1,0E0,8.481314E-1,0E0,1.0480881E-3,4.194798E0,0E0,0E0,0E0,0E0,0E0,0E0,0E0,0E0,0E0,0E0],"parents":[2147483647,0,0,1,1,2,2,3,3,4,4,5,5,6,6,7,7,9,9,11,11,12,12],"right_children":[2,4,6,8,10,12,14,16,-1,18,-1,20,22,-1,-1,-1,-1,-1,-1,-1,-1,-1,-1],"split_conditions":[8.018166E-3,1.16133995E-1,-3.293079E-2,1.8399855E-1,5.362083E-1,-1.2267265E-1,-6.2723315E-1,-1.2490437E0,-9.4575845E-2,-3.102138E-1,-3.2416093E-1,6.2404966E-1,-8.194663E-1,1.02629565E-1,-4.0564755E-1,9.641905E-2,3.0308542E-1,2.4057572E-1,-1.679707E-2,2.825844E-1,8.393213E-2,1.733623E-1,-3.4446192E-1],"split_indices":[7,20,21,13,21,23,12,14,0,25,0,28,21,0,0,0,0,0,0,0,0,0,0],"split_type":[0,0,0,0,0,0,0,0,0,0,0,0,0,0,0,0,0,0,0,0,0,0,0],"sum_hessian":[1.3057898E2,1.08320465E2,2.2258518E1,1.02400475E2,5.919992E0,1.3731777E1,8.526742E0,1.0122919E2,1.1712854E0,4.509117E0,1.410875E0,9.972285E0,3.759492E0,1.3016827E0,7.225059E0,1.858288E0,9.9370895E1,3.0749307E0,1.4341862E0,8.908941E0,1.0633433E0,2.193296E0,1.566196E0],"tree_param":{"num_deleted":"0","num_feature":"30","num_nodes":"23","size_leaf_vector":"0"}}]},"name":"gbtree"},"learner_model_param":{"base_score":"5E-1","boost_from_average":"1","num_class":"0","num_feature":"30","num_target":"1"},"objective":{"name":"binary:logistic","reg_loss_param":{"scale_pos_weight":"10"}}},"version":[1,7,6]}