{"learner":{"attributes":{"best_iteration":"9","best_ntree_limit":"10","scikit_learn":"{\"use_label_encoder\": null, \"n_estimators\": 10, \"objective\": \"binary:logistic\", \"max_depth\": 4, \"max_leaves\": null, \"max_bin\": null, \"grow_policy\": null, \"learning_rate\": null, \"verbosity\": null, \"booster\": null, \"tree_method\": null, \"gamma\": null, \"min_child_weight\": null, \"max_delta_step\": null, \"subsample\": null, \"sampling_method\": null, \"colsample_bytree\": null, \"colsample_bylevel\": null, \"colsample_bynode\": null, \"reg_alpha\": null, \"reg_lambda\": null, \"scale_pos_weight\": 10.0, \"base_score\": null, \"missing\": NaN, \"num_parallel_tree\": null, \"random_state\": null, \"n_jobs\": null, \"monotone_constraints\": null, \"interaction_constraints\": null, \"importance_type\": null, \"gpu_id\": null, \"validate_parameters\": null, \"predictor\": null, \"enable_categorical\": false, \"feature_types\": null, \"max_cat_to_onehot\": null, \"max_cat_threshold\": null, \"eval_metric\": null, \"early_stopping_rounds\": null, \"callbacks\": null, \"classes_\": [0, 1], \"n_classes_\": 2, \"_estimator_type\": \"classifier\"}"},"feature_names":["mean radius","mean texture","mean compactness","mean concavity","mean concave points","mean symmetry","radius error","perimeter error","area error","smoothness error","fractal dimension error","worst radius","worst texture","worst perimeter","worst area","worst smoothness","worst compactness","worst concave points","worst symmetry","worst fractal dimension"],"feature_types":[],"gradient_booster":{"model":{"gbtree_model_param":{"num_parallel_tree":"1","num_trees":"10","size_leaf_vector":"0"},"tree_info":[0,0,0,0,0,0,0,0,0,0],"trees":[{"base_weights":[1.7739038,1.9455707,-1.5343915,1.9620748,-1.5789474,1.52,-1.9523809,1.9675161,0.5263158,1.9740479,0.93333334,-1.1111112,1.4285715],"categories":[],"categories_nodes":[],"categories_segments":[],"categories_sizes":[],"default_left":[1,1,1,1,0,0,0,1,1,0,0,0,0],"id":0,"left_children":[1,3,5,7,-1,-1,-1,9,11,-1,-1,-1,-1],"loss_changes":[540.5259,55.4646,63.291862,5.9682617,0.0,0.0,0.0,4.1882324,8.604846,0.0,0.0,0.0,0.0],"parents":[2147483647,0,0,1,1,2,2,3,3,7,7,8,8],"right_children":[2,4,6,8,-1,-1,-1,10,12,-1,-1,-1,-1],"split_conditions":[0.30348158,0.936341,-0.85027266,0.13512525,-0.47368425,0.456,-0.5857143,0.6957607,0.63980114,0.5922144,0.28,-0.33333337,0.42857146],"split_indices":[13,17,10,14,0,0,0,17,0,0,0,0,0],"split_type":[0,0,0,0,0,0,0,0,0,0,0,0,0],"sum_hessian":[945.5,899.25,46.25,895.5,3.75,5.25,41.0,891.75,3.75,885.25,6.5,1.25,2.5],"tree_param":{"num_deleted":"0","num_feature":"20","num_nodes":"13","size_leaf_vector":"0"}},{"base_weights":[1.3689792,1.4947258,-1.3300387,1.5123522,-1.3245057,1.1496369,-1.521038,1.5268939,0.9397381,1.5431205,1.2415565,1.350549,-1.659676],"categories":[],"categories_nodes":[],"categories_segments":[],"categories_sizes":[],"default_left":[1,1,1,1,0,0,0,1,1,0,0,0,0],"id":1,"left_children":[1,3,5,7,-1,-1,-1,9,11,-1,-1,-1,-1],"loss_changes":[296.96777,43.293823,20.323708,5.4449463,0.0,0.0,0.0,1.807373,26.869701,0.0,0.0,0.0,0.0],"parents":[2147483647,0,0,1,1,2,2,3,3,7,7,8,8],"right_children":[2,4,6,8,-1,-1,-1,10,12,-1,-1,-1,-1],"split_conditions":[0.3898605,0.936341,-1.9993247,-0.010078339,-0.3973517,0.34489107,-0.45631143,0.3227091,0.05942201,0.46293616,0.37246698,0.40516472,-0.4979028],"split_indices":[13,17,5,14,0,0,0,17,1,0,0,0,0],"split_type":[0,0,0,0,0,0,0,0,0,0,0,0,0],"sum_hessian":[868.1408,829.92114,38.21963,825.2253,4.695908,2.3744147,35.845215,803.1623,22.062998,755.77454,47.38774,19.466894,2.5961034],"tree_param":{"num_deleted":"0","num_feature":"20","num_nodes":"13","size_leaf_vector":"0"}},{"base_weights":[1.1789525,1.2951362,-1.014528,1.3073969,-1.074206,1.0717999,-1.3277568,1.3412209,1.0905272,1.3444558,0.72844356,1.2352519,-0.544994],"categories":[],"categories_nodes":[],"categories_segments":[],"categories_sizes":[],"default_left":[1,1,1,1,0,0,0,1,1,0,0,0,0],"id":2,"left_children":[1,3,5,7,-1,-1,-1,9,11,-1,-1,-1,-1],"loss_changes":[187.33032,21.554443,25.784073,3.602539,0.0,0.0,0.0,0.19628906,23.99189,0.0,0.0,0.0,0.0],"parents":[2147483647,0,0,1,1,2,2,3,3,7,7,8,8],"right_children":[2,4,6,8,-1,-1,-1,10,12,-1,-1,-1,-1],"split_conditions":[0.30348158,0.936341,-1.4294268,-0.16713467,-0.3222618,0.32153997,-0.39832705,0.19004902,0.30603617,0.40333676,0.21853308,0.37057558,-0.16349821],"split_indices":[13,17,15,13,0,0,0,8,15,0,0,0,0],"split_type":[0,0,0,0,0,0,0,0,0,0,0,0,0],"sum_hessian":[728.91394,692.6361,36.277832,689.51624,3.1198635,4.4194365,31.858397,592.0006,97.51561,587.70404,4.296589,89.812935,7.7026744],"tree_param":{"num_deleted":"0","num_feature":"20","num_nodes":"13","size_leaf_vector":"0"}},{"base_weights":[1.066571,1.172461,-0.9046722,1.184369,-0.94889295,0.95979506,-1.2051644,1.1994728,0.57066274,1.2062408,0.44619682,1.1605382,-1.5167426],"categories":[],"categories_nodes":[],"categories_segments":[],"categories_sizes":[],"default_left":[1,1,1,1,0,0,0,1,1,0,0,0,0],"id":3,"left_children":[1,3,5,7,-1,-1,-1,9,11,-1,-1,-1,-1],"loss_changes":[124.01245,15.255798,18.296516,4.4763184,0.0,0.0,0.0,2.227417,20.575565,0.0,0.0,0.0,0.0],"parents":[2147483647,0,0,1,1,2,2,3,3,7,7,8,8],"right_children":[2,4,6,8,-1,-1,-1,10,12,-1,-1,-1,-1],"split_conditions":[0.30348158,0.936341,-0.437631,-0.010078339,-0.2846679,0.28793854,-0.36154935,2.0112524,-0.1418693,0.36187226,0.13385905,0.34816146,-0.45502278],"split_indices":[13,17,17,14,0,0,0,15,1,0,0,0,0],"split_type":[0,0,0,0,0,0,0,0,0,0,0,0,0],"sum_hessian":[588.03284,558.4401,29.592709,555.76215,2.6780171,3.8028772,25.789831,541.4814,14.280746,536.06366,5.417762,11.480518,2.8002274],"tree_param":{"num_deleted":"0","num_feature":"20","num_nodes":"13","size_leaf_vector":"0"}},{"base_weights":[0.990547,1.0897987,-0.8266087,1.1117357,-0.29183054,0.83908224,-1.1215672,1.1391783,0.7573985,0.8657048,-1.3554702,1.145772,0.48847672,1.0250528,-0.34753335],"categories":[],"categories_nodes":[],"categories_segments":[],"categories_sizes":[],"default_left":[1,1,1,1,1,0,0,1,1,0,0,0,0,0,0],"id":4,"left_children":[1,3,5,7,9,-1,-1,11,13,-1,-1,-1,-1,-1,-1],"loss_changes":[84.72272,13.694214,13.046345,3.3616333,10.637119,0.0,0.0,1.1618042,10.473856,0.0,0.0,0.0,0.0,0.0,0.0],"parents":[2147483647,0,0,1,1,2,2,3,3,4,4,7,7,8,8],"right_children":[2,4,6,8,10,-1,-1,12,14,-1,-1,-1,-1,-1,-1],"split_conditions":[0.30348158,0.6957607,-0.437631,0.0056231893,-0.35943258,0.2517247,-0.3364702,2.0112524,0.29031414,0.25971144,-0.40664107,0.3437316,0.14654303,0.30751586,-0.104260005],"split_indices":[13,17,17,13,12,0,0,15,12,0,0,0,0,0,0],"split_type":[0,0,0,0,0,0,0,0,0,0,0,0,0,0,0],"sum_hessian":[463.75864,440.11987,23.638748,433.43332,6.686548,3.2786717,20.360077,400.2221,33.211212,3.2910566,3.3954916,395.45404,4.7680793,26.793222,6.4179907],"tree_param":{"num_deleted":"0","num_feature":"20","num_nodes":"15","size_leaf_vector":"0"}},{"base_weights":[0.9337526,1.0521216,-0.45245904,1.0620904,-0.701218,0.8881936,-1.0339833,1.0900747,0.7366621,1.0073524,0.1784242,0.25439423,-1.283589,1.0963944,0.16034305,0.9302859,-0.26351905,0.7677797,-0.611331,-1.865121,-1.0584829],"categories":[],"categories_nodes":[],"categories_segments":[],"categories_sizes":[],"default_left":[1,1,1,1,0,1,1,1,1,0,0,1,1,0,0,0,0,0,0,0,0],"id":5,"left_children":[1,3,5,7,-1,9,11,13,15,-1,-1,17,19,-1,-1,-1,-1,-1,-1,-1,-1],"loss_changes":[60.0166,6.593384,23.719807,2.230713,0.0,0.6140938,7.035059,1.6143494,5.950777,0.0,0.0,2.345022,0.3350582,0.0,0.0,0.0,0.0,0.0,0.0,0.0,0.0],"parents":[2147483647,0,0,1,1,2,2,3,3,5,5,6,6,7,7,8,8,11,11,12,12],"right_children":[2,4,6,8,-1,10,12,14,16,-1,-1,18,20,-1,-1,-1,-1,-1,-1,-1,-1],"split_conditions":[0.46964577,0.5938935,-0.29951867,0.01455894,-0.21036541,-0.10132519,-0.04152239,0.19004902,0.39684674,0.3022057,0.053527262,-0.2957487,0.132213,0.32891834,0.04810292,0.2790858,-0.07905572,0.23033392,-0.1833993,-0.55953634,-0.31754488],"split_indices":[17,13,14,13,0,12,2,8,1,0,0,8,13,0,0,0,0,0,0,0,0],"split_type":[0,0,0,0,0,0,0,0,0,0,0,0,0,0,0,0,0,0,0,0,0],"sum_hessian":[361.86517,333.6184,28.246775,332.12436,1.4940581,8.386073,19.860703,303.66208,28.462267,6.821574,1.5644987,3.2201629,16.64054,301.43384,2.2282367,23.904507,4.5577602,2.092451,1.1277117,2.6106784,14.029861],"tree_param":{"num_deleted":"0","num_feature":"20","num_nodes":"21","size_leaf_vector":"0"}},{"base_weights":[0.88507414,1.0027996,-0.41597906,1.0272164,-0.043632798,0.8051934,-0.95894855,1.0479783,0.4920523,0.7148652,-0.99905246,0.9479397,0.077523015,0.22147398,-1.1977152,1.0680666,0.60146755,0.80921113,-1.1718994,0.3891561,0.012732395],"categories":[],"categories_nodes":[],"categories_segments":[],"categories_sizes":[],"default_left":[1,1,1,1,1,1,1,1,1,0,0,0,0,1,0,0,0,0,0,0,0],"id":6,"left_children":[1,3,5,7,9,11,13,15,17,-1,-1,-1,-1,19,-1,-1,-1,-1,-1,-1,-1],"loss_changes":[43.59607,6.6575623,16.7509,2.2947998,5.6858425,0.75340366,5.095499,1.533783,6.928524,0.0,0.0,0.0,0.0,0.1255071,0.0,0.0,0.0,0.0,0.0,0.0,0.0],"parents":[2147483647,0,0,1,1,2,2,3,3,4,4,5,5,6,6,7,7,8,8,13,13],"right_children":[2,4,6,8,10,12,14,16,18,-1,-1,-1,-1,20,-1,-1,-1,-1,-1,-1,-1],"split_conditions":[0.46964577,0.13512525,-0.29951867,0.3227091,-1.0543312,1.2064326,-0.04152239,-0.08519236,-0.06507608,0.21445957,-0.29971576,0.28438193,0.023256905,-0.23677817,-0.35931456,0.32042,0.18044028,0.24276336,-0.35156983,0.116746835,0.0038197187],"split_indices":[17,14,14,17,19,2,2,8,1,0,0,0,0,3,0,0,0,0,0,0,0],"split_type":[0,0,0,0,0,0,0,0,0,0,0,0,0,0,0,0,0,0,0,0,0],"sum_hessian":[280.90738,257.80887,23.098537,251.94841,5.860446,6.960651,16.137886,241.61661,10.3318,3.4072464,2.4531994,5.566059,1.3945919,2.7272477,13.410639,229.88226,11.734341,9.109213,1.2225875,1.0330791,1.6941684],"tree_param":{"num_deleted":"0","num_feature":"20","num_nodes":"21","size_leaf_vector":"0"}},{"base_weights":[0.8433532,0.95982236,-0.369133,1.0172548,0.44788918,0.7292237,-0.87427604,1.0276581,0.01798915,0.9563697,-0.107581355,0.8896669,0.050187968,0.2511625,-1.1285356,1.043047,0.39795098,0.40563175,-1.7068094,0.030562636,0.3854684],"categories":[],"categories_nodes":[],"categories_segments":[],"categories_sizes":[],"default_left":[1,1,1,1,1,1,1,1,0,0,1,0,0,1,0,0,0,0,0,0,0],"id":7,"left_children":[1,3,5,7,9,11,13,15,-1,-1,17,-1,-1,19,-1,-1,-1,-1,-1,-1,-1],"loss_changes":[31.212067,5.414093,11.663413,1.8394012,6.2953835,0.69679785,4.308769,1.2987366,0.0,0.0,10.029946,0.0,0.0,0.0892594,0.0,0.0,0.0,0.0,0.0,0.0,0.0],"parents":[2147483647,0,0,1,1,2,2,3,3,4,4,5,5,6,6,7,7,10,10,13,13],"right_children":[2,4,6,8,10,12,14,16,-1,-1,18,-1,-1,20,-1,-1,-1,-1,-1,-1,-1],"split_conditions":[0.46964577,0.01455894,-0.29951867,0.19004902,-0.8194663,-0.10132519,-0.036589153,0.31128916,0.005396745,0.28691092,-0.0013966374,0.2669001,0.015056391,-0.50734687,-0.3385607,0.3129141,0.119385295,0.12168953,-0.5120428,0.009168791,0.11564052],"split_indices":[17,13,14,8,12,12,3,17,0,0,4,0,0,9,0,0,0,0,0,0,0],"split_type":[0,0,0,0,0,0,0,0,0,0,0,0,0,0,0,0,0,0,0,0,0],"sum_hessian":[217.51277,198.64015,18.872616,177.71562,20.924534,5.805608,13.067008,175.85635,1.8592564,10.547537,10.376997,4.4451194,1.3604882,2.410316,10.6566925,171.02055,4.835799,8.4209585,1.9560376,1.3766701,1.0336457],"tree_param":{"num_deleted":"0","num_feature":"20","num_nodes":"21","size_leaf_vector":"0"}},{"base_weights":[0.8035494,0.91811955,-0.3703599,1.0030185,0.27044782,0.44946346,-1.0197088,1.0163845,0.15774007,0.7193285,-2.0018013,0.8019917,-0.8337786,1.0231235,0.43947867,-0.39548805,0.59719163,0.86483335,-0.029001081,0.86889184,0.24824774],"categories":[],"categories_nodes":[],"categories_segments":[],"categories_sizes":[],"default_left":[1,1,1,1,1,1,0,1,1,1,0,1,0,0,0,0,0,0,0,0,0],"id":8,"left_children":[1,3,5,7,9,11,-1,13,15,17,-1,19,-1,-1,-1,-1,-1,-1,-1,-1,-1],"loss_changes":[23.150658,8.241165,8.865959,1.3818207,21.135807,4.140458,0.0,0.07206726,1.0405319,1.8609419,0.0,0.026216507,0.0,0.0,0.0,0.0,0.0,0.0,0.0,0.0,0.0],"parents":[2147483647,0,0,1,1,2,2,3,3,4,4,5,5,7,7,8,8,9,9,11,11],"right_children":[2,4,6,8,10,12,-1,14,16,18,-1,20,-1,-1,-1,-1,-1,-1,-1,-1,-1],"split_conditions":[-0.010078339,0.27017733,-0.20915723,0.8587319,0.3223806,0.5362083,-0.30591264,0.3867017,-0.562309,-0.12214527,-0.6005404,-0.09649149,-0.2501336,0.30693707,0.13184361,-0.11864642,0.1791575,0.25945002,-0.008700325,0.26066756,0.07447433],"split_indices":[14,17,3,6,1,12,0,3,2,14,0,1,0,0,0,0,0,0,0,0,0],"split_type":[0,0,0,0,0,0,0,0,0,0,0,0,0,0,0,0,0,0,0,0,0],"sum_hessian":[168.6022,153.8088,14.793398,135.49855,18.310251,6.674481,8.118917,133.19006,2.3084884,15.860461,2.4497905,5.530254,1.144227,130.88765,2.302412,1.0662376,1.2422509,13.148239,2.7122216,4.4263644,1.1038895],"tree_param":{"num_deleted":"0","num_feature":"20","num_nodes":"21","size_leaf_vector":"0"}},{"base_weights":[0.76485884,0.93453455,-0.065541714,0.9829483,0.076074645,0.5980119,-1.0847551,1.0009061,-0.3152528,0.56841666,-1.0805364,0.90327376,-0.23136902,0.34209853,-1.3521584,0.32139683,1.0102847,0.80191904,-0.055990227,0.941948,0.27977377,0.5778743,-1.1482064],"categories":[],"categories_nodes":[],"categories_segments":[],"categories_sizes":[],"default_left":[1,1,1,1,1,1,1,1,0,1,0,1,1,0,0,0,0,0,0,0,0,0,0],"id":9,"left_children":[1,3,5,7,9,11,13,15,-1,17,-1,19,21,-1,-1,-1,-1,-1,-1,-1,-1,-1,-1],"loss_changes":[18.600578,4.468712,16.378494,2.726097,4.5547714,3.9387565,4.097457,0.32678986,0.0,0.8481314,0.0,0.0010480881,4.194798,0.0,0.0,0.0,0.0,0.0,0.0,0.0,0.0,0.0,0.0],"parents":[2147483647,0,0,1,1,2,2,3,3,4,4,5,5,6,6,7,7,9,9,11,11,12,12],"right_children":[2,4,6,8,10,12,14,16,-1,18,-1,20,22,-1,-1,-1,-1,-1,-1,-1,-1,-1,-1],"split_conditions":[0.008018166,0.116133995,-0.03293079,0.18399855,0.5362083,-0.12267265,-0.62723315,-1.2490437,-0.094575845,-0.3102138,-0.32416093,0.62404966,-0.8194663,0.102629565,-0.40564755,0.09641905,0.30308542,0.24057572,-0.01679707,0.2825844,0.08393213,0.1733623,-0.34446192],"split_indices":[4,11,12,8,12,14,7,9,0,16,0,18,12,0,0,0,0,0,0,0,0,0,0],"split_type":[0,0,0,0,0,0,0,0,0,0,0,0,0,0,0,0,0,0,0,0,0,0,0],"sum_hessian":[130.57898,108.320465,22.258518,102.400475,5.919992,13.731777,8.526742,101.22919,1.1712854,4.509117,1.410875,9.972285,3.759492,1.3016827,7.225059,1.858288,99.370895,3.0749307,1.4341862,8.908941,1.0633433,2.193296,1.566196],"tree_param":{"num_deleted":"0","num_feature":"20","num_nodes":"23","size_leaf_vector":"0"}}]},"name":"gbtree"},"learner_model_param":{"base_score":"5E-1","boost_from_average":"1","num_class":"0","num_feature":"20","num_target":"1"},"objective":{"name":"binary:logistic","reg_loss_param":{"scale_pos_weight":"10"}}},"version":[1,7,6]}